Language model created by QuickLM on Fri Nov 24 04:49:00 EST 2017
Copyright (c) 1996-2010 Carnegie Mellon University and Alexander I. Rudnicky

The model is in standard ARPA format, designed by Doug Paul while he was at MITRE.

The code that was used to produce this language model is available in Open Source.
Please visit http://www.speech.cs.cmu.edu/tools/ for more information

The (fixed) discount mass is 0.5. The backoffs are computed using the ratio method.
This model based on a corpus of 20 sentences and 21 words

\data\
ngram 1=21
ngram 2=41
ngram 3=33

\1-grams:
-0.8633 </s> -0.3010
-0.8633 <s> -0.2122
-1.8633 ANTICLOCKWISE -0.2370
-1.8633 BATTERY -0.2301
-1.8633 CLOCKWISE -0.2370
-1.8633 COUNTERCLOCKWISE -0.2370
-1.8633 DATE -0.2301
-2.1644 DOWN -0.2370
-2.1644 INFO -0.2370
-1.8633 IS -0.2890
-2.1644 IT -0.2370
-2.1644 MUTE -0.2370
-2.1644 THE -0.2920
-1.6872 TIME -0.2370
-2.1644 TODAY -0.2370
-1.6872 TURN -0.2828
-2.1644 UNMUTE -0.2370
-2.1644 UP -0.2370
-1.8633 VOLTAGE -0.2370
-1.8633 VOLUME -0.2950
-1.6872 WHAT -0.2859

\2-grams:
-1.6021 <s> ANTICLOCKWISE 0.0000
-1.3010 <s> BATTERY 0.0000
-1.6021 <s> CLOCKWISE 0.0000
-1.6021 <s> COUNTERCLOCKWISE 0.0000
-1.6021 <s> DATE -0.1761
-1.6021 <s> INFO 0.0000
-1.6021 <s> MUTE 0.0000
-1.6021 <s> TIME 0.0000
-1.6021 <s> TODAY 0.0000
-1.1249 <s> TURN 0.0000
-1.6021 <s> UNMUTE 0.0000
-1.6021 <s> VOLTAGE 0.0000
-1.3010 <s> VOLUME 0.0000
-1.1249 <s> WHAT 0.0000
-0.3010 ANTICLOCKWISE </s> -0.3010
-0.6021 BATTERY </s> -0.3010
-0.6021 BATTERY VOLTAGE 0.0000
-0.3010 CLOCKWISE </s> -0.3010
-0.3010 COUNTERCLOCKWISE </s> -0.3010
-0.6021 DATE </s> -0.3010
-0.6021 DATE IS -0.1761
-0.3010 DOWN </s> -0.3010
-0.3010 INFO </s> -0.3010
-0.6021 IS IT 0.0000
-0.6021 IS TIME 0.0000
-0.3010 IT </s> -0.3010
-0.3010 MUTE </s> -0.3010
-0.3010 THE TIME 0.0000
-0.3010 TIME </s> -0.3010
-0.3010 TODAY </s> -0.3010
-0.7782 TURN ANTICLOCKWISE 0.0000
-0.7782 TURN CLOCKWISE 0.0000
-0.7782 TURN COUNTERCLOCKWISE 0.0000
-0.3010 UNMUTE </s> -0.3010
-0.3010 UP </s> -0.3010
-0.3010 VOLTAGE </s> -0.3010
-0.6021 VOLUME DOWN 0.0000
-0.6021 VOLUME UP 0.0000
-0.7782 WHAT DATE -0.1761
-0.7782 WHAT IS -0.1761
-0.7782 WHAT THE 0.0000

\3-grams:
-0.3010 <s> ANTICLOCKWISE </s>
-0.6021 <s> BATTERY </s>
-0.6021 <s> BATTERY VOLTAGE
-0.3010 <s> CLOCKWISE </s>
-0.3010 <s> COUNTERCLOCKWISE </s>
-0.3010 <s> DATE </s>
-0.3010 <s> INFO </s>
-0.3010 <s> MUTE </s>
-0.3010 <s> TIME </s>
-0.3010 <s> TODAY </s>
-0.7782 <s> TURN ANTICLOCKWISE
-0.7782 <s> TURN CLOCKWISE
-0.7782 <s> TURN COUNTERCLOCKWISE
-0.3010 <s> UNMUTE </s>
-0.3010 <s> VOLTAGE </s>
-0.6021 <s> VOLUME DOWN
-0.6021 <s> VOLUME UP
-0.7782 <s> WHAT DATE
-0.7782 <s> WHAT IS
-0.7782 <s> WHAT THE
-0.3010 BATTERY VOLTAGE </s>
-0.3010 DATE IS IT
-0.3010 IS IT </s>
-0.3010 IS TIME </s>
-0.3010 THE TIME </s>
-0.3010 TURN ANTICLOCKWISE </s>
-0.3010 TURN CLOCKWISE </s>
-0.3010 TURN COUNTERCLOCKWISE </s>
-0.3010 VOLUME DOWN </s>
-0.3010 VOLUME UP </s>
-0.3010 WHAT DATE IS
-0.3010 WHAT IS TIME
-0.3010 WHAT THE TIME

\end\
